%YAML:1.0
---
opencv_ml_knn:
   format: 3
   is_classifier: 1
   default_k: 5
   samples: !!opencv-matrix
      rows: 480
      cols: 4
      dt: f
      data: [ 0.530411065, 0.924009025, -1.09695327, 1.03680289,
          -1.72360671, -0.641174376, 1.36622751, -0.507320344,
          0.014264157, 0.935103953, -1.13490319, 1.06878746,
          -0.167131931, -1.3469789, -0.720360577, -0.427947015,
          -1.72418225, 0.303934515, 1.46251392, 1.0535903, -1.73514199,
          -0.25403899, 1.19272053, 0.303647101, -0.437545598,
          -1.00998008, -0.519355536, 0.0153632732, 0.283038229,
          0.215482011, -0.634453654, 0.681231976, -1.72864151,
          -0.206265271, 0.911476851, 0.467522025, -1.4728874,
          0.188561261, 1.65150344, 0.656359136, -0.432502359,
          -0.68351239, -0.741553128, 0.396502167, 1.3630091,
          -0.167966366, -0.913388908, -1.93139637, -0.422527283,
          -1.07221639, -0.538027108, -0.412226379, -0.389047325,
          1.45583558, 0.971366167, 0.823587954, 0.0445427634,
          -0.839593112, 0.850376308, -0.386594117, 0.290434778,
          -0.286419183, 1.05256414, 0.253590494, 0.557544827,
          -0.310299039, 0.519811094, -0.101299681, 0.0347806662,
          -0.0818611309, 1.02799642, 0.653512657, 1.38619637,
          -0.143757164, -1.04907298, -1.78241301, 0.308509439,
          -0.237515837, 0.806420863, 0.876185417, -0.416306227,
          -1.02918172, -0.67326653, -0.138796568, -0.379818022,
          0.16046524, 1.01134205, 0.230995864, 1.02802157, 0.25063476,
          -1.09820831, 0.264081031, -0.66432333, -0.283084601,
          0.406745434, -0.481600553, 1.89110732, 0.143163234,
          -0.944847047, -1.6142801, -0.401138306, -0.135103598,
          0.676466405, 0.0902158991, 0.518000245, 0.725101888,
          -0.985120773, 1.27696168, 1.88901806, 0.681741357,
          -0.848453343, -1.96393836, 1.3901, -0.0444449559, -0.914713979,
          -1.50335824, -0.392025799, 1.05403888, 1.27394927, 0.452085465,
          0.358106911, -0.839593112, 0.850376308, -0.386594117,
          0.558896661, 0.924009025, -1.09695327, 1.03680289, 0.605954587,
          -0.286419183, 1.05256414, 0.253590494, 0.597003102,
          -0.310299039, 0.519811094, -0.101299681, 0.567606926,
          0.935103953, -1.13490319, 1.06878746, -0.957864821, 1.45583558,
          0.971366167, 0.823587954, 1.29847646, -0.167966366,
          -0.913388908, -1.93139637, 1.02356219, -0.143757164,
          -1.04907298, -1.78241301, 1.80484068, 0.143163234,
          -0.944847047, -1.6142801, 0.547033906, 0.681741357,
          -0.848453343, -1.96393836, 0.591016412, -0.0818611309,
          1.02799642, 0.653512657, 0.5578807, 0.215482011, -0.634453654,
          0.681231976, 0.0965782776, -0.237515837, 0.806420863,
          0.876185417, -0.517246127, -1.3469789, -0.720360577,
          -0.427947015, -0.494812906, -1.00998008, -0.519355536,
          0.0153632732, 0.548112452, 0.25063476, -1.09820831,
          0.264081031, -1.68348813, -0.641174376, 1.36622751,
          -0.507320344, -0.689326644, 0.16046524, 1.01134205,
          0.230995864, 0.0349974483, 0.725101888, -0.985120773,
          1.27696168, 1.04392457, -0.0444449559, -0.914713979,
          -1.50335824, -0.712568939, -0.283084601, 0.406745434,
          -0.481600553, -1.16274059, 0.303934515, 1.46251392, 1.0535903,
          -0.649720252, -0.25403899, 1.19272053, 0.303647101,
          0.00711185066, -0.68351239, -0.741553128, 0.396502167,
          -0.896206141, -0.206265271, 0.911476851, 0.467522025,
          1.78471887, -1.07221639, -0.538027108, -0.412226379,
          0.000764083117, -1.02918172, -0.67326653, -0.138796568,
          -0.701576412, -0.135103598, 0.676466405, 0.0902158991,
          -0.707540989, 1.05403888, 1.27394927, 0.452085465, -1.68209279,
          0.188561261, 1.65150344, 0.656359136, 0.585042655, 1.73003483,
          -1.47811913, 1.27552867, 0.835639, 1.71422577, -1.2208364,
          1.29958141, 0.547117114, 0.651635289, -1.1378293, -1.76751614,
          0.371632934, -0.324573666, 0.741964936, -0.0815121904,
          0.118977129, 0.0973212793, 0.666765928, 1.10358977, 1.32211268,
          1.15586984, -0.632556915, -2.0369184, 0.0558742471,
          0.900620162, -1.24833238, 0.588600278, -0.93699646,
          0.548283517, 0.899811745, 0.263375252, 0.578553677,
          0.696304798, -0.765341103, 0.736584783, 1.39522648,
          -0.0673661679, 0.462383538, 0.0916918293, 1.31422222,
          0.664099753, -0.997221708, -1.66777992, 0.564868093,
          1.11604905, -1.1368897, 1.47203672, -1.4526999, 2.90732551,
          -1.2409755, 0.780914545, 0.3735542, -0.111788765, 0.985760272,
          0.458966613, -0.498230278, -1.6101855, -0.745789051,
          -0.357104063, -1.40769684, 0.70720315, 1.25158703, 1.33523428,
          0.564943671, 1.57281399, -0.697910845, -2.13067937,
          -0.695537746, 0.358398378, 0.105443679, -0.432857275,
          -0.430606276, 0.227664188, 0.607971728, 0.148852929,
          0.527354777, -1.24408448, -0.637379825, -0.284758389,
          0.615502179, 0.122897208, 0.868881464, 0.827929974, 1.30044961,
          0.174342528, -0.93127203, -1.97307992, -1.20358205, 2.33691454,
          0.177361682, 0.564776301, -1.14809477, -0.00415838836,
          1.16301024, 0.438705593, -2.18439794, -0.399362713, 1.29472995,
          -0.0665330887, -0.477103889, -0.801745832, -0.519609571,
          0.350696445, -0.741302609, -0.812832832, -0.695184052,
          0.50953424, -0.486312568, -1.58071172, -0.757230759,
          -0.375982076, -1.65531015, -0.00261279265, 1.01035428,
          1.0133971, -1.93178606, 0.412293434, 1.54038274, 0.877927601,
          1.02155161, 0.0502784401, -0.840246558, -1.39520955,
          1.36538529, -0.269411087, 0.934818029, 0.583105743,
          -0.473157525, -0.595999002, 0.52533263, -0.609668911,
          1.27924848, -0.254599839, -0.947924256, -1.66283929,
          -0.272038788, -1.04597044, -0.509313345, -0.324742556,
          1.27174652, -0.299093932, -0.789814591, -1.3680371,
          -0.465525866, -0.427215815, 0.826520503, -0.00911647081,
          -1.96670723, -0.547253549, 0.993064702, -0.103706561,
          0.574537098, -0.228186831, 1.06458628, 0.603105843,
          0.536345899, 0.559561968, -0.943066359, 0.91151309, 1.28457034,
          0.0332535952, -0.986434877, -1.54218638, 0.591233969,
          -0.981005073, 1.06259978, -0.521180868, -0.458310962,
          -0.280821621, 0.995868146, 0.0959552377, -0.517956793,
          -0.973476231, -0.564489305, 0.226541266, 1.5534085, 0.23666805,
          -0.833351791, -1.60450423, -0.779571652, -0.80623728,
          -0.60172087, 0.0968325734, 1.04008436, 0.559334636,
          -0.893234551, 1.12762809, 1.30658448, 0.0658340827,
          -0.441331178, 0.630810857, -0.456825525, 0.740206122,
          1.45979142, 0.393845141, 1.2963239, 0.02101833, -0.808170855,
          0.193740204, -0.00768663036, -0.46957317, -0.492501229,
          0.267754793, -0.722069263, 0.652666152, 1.49160433,
          0.440015346, 0.583241999, -0.433878928, 0.694713116,
          0.096144639, 1.31319475, 0.484312236, -0.79303205, 0.824179351,
          -1.44493306, 0.49157533, 1.21430743, 0.903995872, -2.21527195,
          -0.825338721, 1.05664015, -0.765033126, -0.786198795,
          -1.34739184, -0.548088968, -0.567136705, 0.0741061419,
          -0.474357635, 1.18930387, -0.0229984522, -1.17765212,
          0.209741235, 1.6105113, 0.314714819, -1.95116103, -0.32271716,
          1.1972959, 0.0235345047, 1.12739515, 2.45684433, -1.06771386,
          -1.66708481, -0.391909003, 1.44427156, 0.949588835,
          0.976868629, 0.585748732, 1.84042943, -1.13803959, -1.84154677,
          0.674106836, 0.70530957, -1.06569445, 1.00217569, 0.601960897,
          2.17897296, -1.1792289, -1.65186274, -1.48423028, -0.268712372,
          1.94761217, -0.42052269, 0.788861275, -1.76343977, 1.32280862,
          0.00769950496, -0.449145019, 2.13614225, -1.51115537,
          1.57586479, -0.694770634, 2.42102504, -1.60093892, 1.25857329,
          -0.704513669, 2.18996167, -1.49282324, 1.17083216, 0.847532332,
          1.99102437, -1.16658032, -1.98679566, 0.0324235372,
          -1.67585695, 0.77970016, 0.0134281227, 1.38866961, 2.12184048,
          -1.29574633, -1.43982708, 0.65161407, 0.746488214, -1.05973494,
          1.26836526, 0.26668486, -1.72059381, 0.384950578, -0.573292375,
          -0.914698362, 0.113175049, 0.0262059607, -0.447132349,
          -0.666280508, -0.109023184, 0.835938394, 0.279739141,
          -0.457223982, 0.950549662, -1.21225512, 0.911523819,
          1.18169689, 0.824166238, -0.986529052, 1.5078826, 0.646373093,
          0.715359688, -0.90804261, 1.71647501, 0.521667242, -1.30698621,
          0.846300364, 0.310819477, -1.23578727, -0.430602789,
          1.56829488, -0.180210233, 0.664095879, 0.417216241,
          -0.574446082, 1.52193069, -0.929241121, -0.0032491046,
          1.07151616, 0.176679432, 0.531455338, -2.13244486, 0.827481985,
          -0.395378232, 0.0536774136, 1.4041028, -1.35943997, 1.19637692,
          -0.406931132, 0.157522649, 0.736633897, 0.503998637,
          -1.23871076, -0.99748981, 0.763302028, -0.585325003,
          -1.74213016, 0.58818388, 1.48923457, 0.792709529, 0.287692934,
          0.588333428, 1.37372243, -0.495934606, 0.592320919, 1.77301431,
          -1.05743515, -1.69032812, 1.36546922, 1.32722545, -1.04008424,
          -1.6473242, -0.415596336, -0.32519415, 0.897336781,
          0.278609872, 1.35149133, 1.39665294, -1.10433209, -1.71448267,
          0.913618267, 0.432913959, -0.781023085, 0.760635674,
          1.85229242, 0.86911428, -1.0555625, -1.35124254, -0.409098953,
          -0.324085504, 0.297882825, -0.414981693, 0.628883183,
          0.715159833, -0.73136425, 1.37625659, 0.507127523, -1.66396248,
          0.776360095, -0.60877192, 1.41709554, 0.589339614, -0.83021754,
          1.30795097, -0.457778156, 1.4005481, -1.06986034, 0.723785639,
          -1.49596941, -0.850372195, 1.46490335, -0.313297838,
          1.02274239, -1.53551126, 0.774627626, 0.0274655577, 1.86667192,
          1.46008098, -1.1143502, -1.84784722, -0.207854271, 1.25869668,
          -1.10965443, 1.32371628, 1.15970492, 0.199618474, -0.548535764,
          1.08208334, 0.0068538487, -1.674667, 0.284226805, -0.546931088,
          0.524708331, -1.67187798, 1.01848221, -0.528003037,
          0.633175313, 0.589156568, -0.799212813, 1.02383935,
          0.0393987522, 0.729619384, -0.944126427, 0.802310228,
          -1.75301743, -0.479417622, 1.80134499, 0.415247947,
          0.608515501, -0.144495949, 1.02193391, 0.271671563,
          -0.196541876, 1.56257105, -1.09541571, 1.09002936,
          -0.978931725, 0.544592321, -0.773994684, 0.411349028,
          0.504304051, -1.95172226, 0.968825519, -0.285866231,
          -0.995417118, -1.13802207, 0.787142515, -0.409297734,
          -1.00161839, -0.167537808, 1.46685052, 0.00828022882,
          -1.24833322, -0.975805104, 1.19375658, -0.262090504,
          -0.412120938, 1.12839103, 1.3402822, 0.676489711, 0.346515149,
          -0.229921088, 1.14132273, 0.0798557848, -0.00994147733,
          -1.52008367, 0.231013268, -0.757287145, 1.85691059,
          0.724175334, -1.08022439, -1.34500825, -0.0183807407,
          -1.67882001, 0.633308172, -0.707073271, 1.05891001,
          0.0948934183, -1.02012038, -1.26629603, 1.13263607,
          0.562091351, -0.88008225, 0.886706352, -0.0230782107,
          -1.8674773, 1.10537469, -0.671300709, 1.84419513, 0.755682111,
          -1.06250989, -1.51198339, 1.39340138, 0.082778804,
          -0.343303561, 0.712480247, -0.0147885578, -1.39430428,
          0.632280946, -0.0624054782, -0.697552204, -0.419689536,
          1.28006649, 0.159155861, 0.606091201, 0.493858784,
          -0.711501181, 1.09932101, 2.09559155, 0.669337928, -1.01733887,
          -1.46851838, -0.49270308, 0.481650084, -0.786472321,
          0.766105175, -0.43339619, 0.709596992, 1.45521605, 0.449648231,
          1.38032424, 0.46913904, -0.769092977, 0.819547892, -1.21523416,
          -0.442631006, 1.10836649, 0.022281928, -0.218476638,
          0.874513149, -0.862882495, 0.795043111, 0.115363576,
          0.36243239, -0.902560472, 0.472802132, -0.430933714,
          -0.485811263, 0.454389244, -0.737142265, -1.2061255,
          -0.437921315, 0.787517071, 0.067901805, 0.0267726798,
          0.106453247, -0.750344694, 0.20552443, -0.00383033883,
          -1.5691911, 0.869910896, -0.516840637, 0.535585642,
          0.578617334, -0.794508219, 0.859401643, -2.02281666,
          -1.16394365, 1.36424756, -0.683488727, -1.01344287,
          -1.10870421, 0.583715081, -0.618317246, 1.33548832,
          0.763270795, -0.979150236, -1.58950555, -2.02637863,
          -1.04547012, 1.57514143, -0.19627215, -1.0129323, -1.01152265,
          1.0254252, -0.683426201, -1.78200102, -0.313562363, 1.40152729,
          0.0917096958, 0.0350035578, 0.894961357, -0.896852791,
          0.461714774, 0.580316961, 1.51166892, -1.33228135, 1.01334882,
          0.295787185, -0.898603857, 0.273297638, -0.520668089,
          1.05414701, -1.29257464, -1.08587956, -2.14838696, 0.292675912,
          -0.85978204, 0.519287586, -0.516233146, -0.134071022,
          1.49364626, -1.21721375, 1.30764008, 0.567275643, 1.35115755,
          -1.22616959, 1.2270838, 1.28204978, -1.19545627, -0.73824811,
          -2.18598032, -0.671992421, 1.12810493, -1.12736225, 1.13659632,
          1.07999909, 0.455293417, -0.776000917, 0.769450188,
          0.563288808, -0.0142457522, 1.09312701, -0.0271832366,
          -0.404816747, 1.78830063, -1.3996557, 1.85373664, -2.02855945,
          -1.85999894, -1.1387558, -2.07578945, 0.0689300671, 1.51577187,
          -1.22800505, 1.33658326, -0.40423432, 0.688181341, -0.98582381,
          0.91276747, -0.4344908, -0.0130453296, 0.599962115,
          -0.00984192919, 0.0438710414, -0.562517345, 0.697711527,
          0.0743540972, -0.683171988, 0.39010638, -0.11818637,
          -0.5811795, -1.66760111, 0.00638874108, 1.26843429,
          0.218950763, -1.76543045, -1.66246665, -1.24879456,
          -2.38801336, -0.434364855, 0.266168982, 0.884749591,
          0.0773881525, -1.41716349, 0.234373868, 1.61640513,
          0.628589809, -0.682104111, 0.649489284, 0.787284911,
          0.269873977, 1.0399667, -1.32847571, -0.968930662, -2.324543,
          0.0258780681, -1.83592904, 0.618121207, -0.979009271,
          -0.931382239, 2.70176864, -0.614665031, 0.489571661,
          0.300117493, 0.835760117, -1.00359523, 1.39152336, -1.91768527,
          -0.179193124, 1.13480246, -0.0178988017, -1.66330826,
          0.0967087299, 1.6792382, 0.966231585, -1.14882529,
          -0.0985887796, 0.966422856, 0.631709635, -0.909448206,
          0.946963787, -1.12110269, 1.28027451, 0.829006553, 0.997805893,
          -1.03976893, 0.639183998, 0.109293655, 1.18581605, -1.03034222,
          1.20643866, 1.03213668, -1.03927398, -0.839869857, -1.83405459,
          0.557890594, 0.293436319, -0.595459044, 0.695389092,
          0.535747468, -0.970021248, 0.380035728, -0.471456647,
          0.549926102, -0.631455243, 1.14780354, -0.133625448,
          -0.426105738, 0.891007423, -0.991925776, 1.02644813,
          -0.408926457, 0.588106573, -0.877248108, 0.85872978,
          1.03512955, -1.7741816, 0.643580317, -0.942393303, 0.820656598,
          0.922964215, -1.0544039, 1.02281547, -0.4447124, -0.265111327,
          0.602504969, 0.0591337718, -0.417165726, 0.461613685,
          -0.785326838, 0.700240374, -0.440982819, 0.0368161984,
          1.12224162, 0.282344371, 0.524996877, -1.0344348, 0.665648937,
          -0.324331582, 0.503992617, -1.67247808, -1.13605309,
          -1.76410508, 0.0339906327, 0.70261246, -0.930538297,
          1.32596409, -1.17296076, 0.245928109, 1.49756169, 0.575173914,
          -1.67970896, -0.234235525, 1.83700395, 0.6741364, 0.0962882116,
          1.23577309, -1.12911665, 1.3428247, -1.67546558, -0.472791076,
          1.1906333, -0.38448745, -0.435667068, 0.0279204063,
          0.177357301, -0.578343809, -1.42114735, -0.29924044, 1.0397054,
          0.136135966, -0.689306796, 1.66100001, 0.911619246,
          0.763585746, 0.556008279, 0.938505888, -1.06715763, 1.06665576,
          1.78378451, -1.60908937, -0.847853184, -2.09289122,
          -1.68463075, -0.255187482, 1.25888932, 0.136523709,
          0.0075492328, -0.86022085, -0.931451619, -1.66271245,
          1.77649784, -1.09921706, -0.970376194, -1.75461876,
          -0.19364278, -0.169470966, 1.10584116, 0.163892776,
          -0.227595255, -0.751100063, 0.695696533, 0.301326007,
          0.538349628, 0.112002112, -0.528447092, 0.556453168,
          0.992653131, -0.999227345, -0.786029935, -1.78874207,
          -0.240369409, -1.01471221, 1.11296165, -0.0372252911,
          2.00853109, -1.30223441, -0.833853304, -1.46192133, 1.26669407,
          -0.70857662, -0.888976753, -1.56781507, 0.514543951,
          -0.99483484, 0.562986851, -0.353841305, 0.526703656,
          0.513736784, -0.955925167, 1.1703676, 1.30531728, 0.565734088,
          -0.831257939, 0.712944865, 0.550026894, 0.529834628,
          -1.00401354, 0.322333902, 1.00112295, -1.19624114,
          -0.842612028, -1.7763145, 2.01936102, -0.71837008,
          -0.961700737, -1.53709388, 1.021083, -0.752527595, 0.851743042,
          0.323195159, 0.536629856, 0.542441607, -0.817612886,
          0.721146464, 0.0808317512, 0.323331326, -0.66390115,
          0.490781337, -0.467794448, -0.447765976, 1.22713113,
          0.136511207, 0.582891643, 0.739817619, -0.841659248,
          1.12354338, 0.0123108216, -0.969776928, 0.400014907,
          -0.408495456, -1.70398474, -0.399171263, 1.32372415,
          -0.115606934, -0.256530404, -1.71642542, 0.752399087,
          -0.881213605, -0.179096967, 0.95463258, -0.9971385, 1.03650987,
          -0.455141664, -0.419860959, 0.535758078, -0.764421999,
          -0.709995806, 0.766246021, 1.51066577, 0.384887695,
          -0.203526258, -0.512445509, 0.707519352, 0.0017743347,
          0.855078459, 0.44970125, -0.860893786, 0.794666111,
          -1.18059695, -0.567352116, 0.936949074, 0.0893474892,
          -1.9540987, -0.637688637, 1.05447841, -0.603411376,
          0.560510337, -0.373712033, 1.15177667, 0.0509410948,
          -0.674253345, 0.310261309, 1.21804166, 0.126890838, 1.09740734,
          0.729100466, -0.784231722, 0.663772702, -1.69724619,
          -0.316588581, 1.63673472, 0.649894297, 1.36548603, 2.20289993,
          -1.19544959, -1.8974303, -0.400987178, 1.72381055, -1.25815117,
          1.45865858, 1.13360167, 2.17651772, -1.09042203, -1.48753393,
          0.149647325, 0.274320871, 1.10411751, 1.1989857, 0.403738946,
          -0.0561799295, 0.786395669, 1.01650441, 0.606969774,
          2.73221374, -1.17807901, -1.69399655, -0.132923752, 1.05916893,
          -1.06337726, 1.45347321, 0.590046227, 1.95407021, -1.5406357,
          1.28533661, 0.394172251, 0.203408852, 0.60114485, 1.32226717,
          0.641919911, -0.677013934, 0.965689123, -0.105734624,
          0.608634591, 1.97783923, -1.10186601, -1.56051755, -1.26183176,
          -2.35397315, 1.41790569, -0.936632514, 0.670143664,
          0.0933697224, 0.501621306, 0.826395035, 0.835748911,
          1.38964558, -1.23557878, 1.39194858, -0.405125886, 1.05908799,
          -1.07990468, 1.28015304, -0.744450569, -1.82503974,
          0.746884167, -0.575724244, -0.757506371, -1.75654078,
          0.925844669, 0.030099364, 0.0639310852, 1.73160553,
          -1.32175732, 1.53576088, -0.481738001, -1.48993874, 1.31447482,
          0.301947802, 1.11102188, 2.07513309, -1.17274141, -1.38764417,
          0.564335287, 1.0699122, -1.06067669, 1.64449203, -0.407025784,
          1.76707411, -1.35096169, 2.01896787, 0.120683149, 0.748611391,
          -1.03068388, 1.16982627, 0.830266774, 0.736193538,
          -0.774123907, 1.00507569, 1.04155135, -1.66341937, 1.24186027,
          0.060273774, -1.74317205, 0.38295275, 2.21719074, 0.96520412,
          -1.49661362, -1.04533172, 0.76154983, -0.507082701,
          -1.74851954, -1.01295042, 1.1081475, -0.959127069, -1.49507105,
          -0.960659623, 1.3627845, -0.392319173, -1.75563669,
          -0.428856671, 1.78981793, 0.0526260883, 0.126972139,
          -0.322275788, 0.868883669, 0.421843171, 0.858789742,
          1.55178034, -1.1890564, -1.75813341, 0.112400368, -0.774149597,
          0.813615739, -0.24471882, 0.810702145, -0.0224945173,
          -0.56900996, 0.572061241, 0.543021142, 0.650968254,
          -0.980595767, 1.25053966, -0.497819632, -1.62521958,
          1.14944839, -0.200172827, 0.591562927, 1.0221082, -1.04969931,
          -1.76674783, -0.760206997, -1.78830934, 1.01290584,
          -0.403029501, 1.09496009, 1.47519696, -1.10849357, -1.76890278,
          -0.148019165, 0.687018633, -1.00197005, 1.08017671, 0.64562887,
          -0.184562653, 1.0622865, 0.586218417, 1.32317448, 0.762747705,
          -0.938935637, 0.795232534, 1.06615782, 0.905567646,
          -1.09884346, 0.864706755, 0.569039643, 0.990401626,
          -1.16135228, 0.578031063, 1.08846271, 1.05287528, -1.11313021,
          -1.45619273, 1.09148479, 1.2235266, -1.17728388, -1.89712119,
          0.649704993, -0.271477491, 0.350031912, 0.301095486,
          0.63593626, -0.0459299944, 0.664291024, 0.959872186,
          0.613728225, 1.25619376, -1.09632695, 1.05334914, -0.677555501,
          1.16695356, -1.19749522, 1.37845969, 0.103940494, 0.441630423,
          -0.81908685, 0.72051394, 0.608938396, 0.897505641, -1.0471915,
          1.10546231, -1.50151265, -0.750249684, 1.64253223, 0.197871372,
          -2.01936412, -1.13157701, 0.719856858, -0.395653427,
          -0.758566618, -1.87547612, 0.714733899, -0.797743022,
          -0.257705152, -1.98533738, 1.33405316, -0.822196007,
          -1.25412607, -1.11980546, 1.06599021, -0.420002729,
          -0.00439366885, -1.69735062, 0.769651473, -0.312354386,
          -1.25100708, -1.19207668, 0.992549956, -0.960025847,
          -1.76815248, -0.176511869, 1.39342344, 0.155330226,
          -0.77609551, -1.47092628, 0.829251707, -0.59696269,
          0.552193165, 0.462797344, -0.936270118, 0.232096568,
          0.630304456, -0.407664359, 0.509043932, 0.015802836,
          1.33628058, 0.636731327, -1.06175208, -1.33029008,
          0.0269955676, -0.298669338, -0.337659389, 0.383647621,
          2.10865712, 0.783839166, -0.866115272, -1.65021169, 1.06955767,
          0.480750561, -0.911023498, -1.22862589, 0.625581801,
          -0.302494675, 1.21889365, 0.269027025, 1.34320092, 0.907700598,
          -0.933258593, -1.69217396, 0.527109742, 0.451168567,
          -0.743073165, 0.945799053, -0.686190903, 0.34723404,
          -0.823927283, 0.601567388, -0.520337582, -1.66450858,
          1.07672668, -0.240727007, 1.57726836, 0.607141912,
          -0.807388902, -1.79556596, 0.539886177, 0.716649532,
          -0.866853356, 0.561229408, -0.177196294, 0.956498206,
          -0.885130703, 0.965252399, -0.696221709, 0.78745532,
          -0.800027609, 0.760800064, -1.77477014, -1.0841186, 1.16109598,
          -0.514519572, -0.164380923, -0.914826751, 0.853092194,
          -0.605519891, 1.30248928, 0.502806306, -0.805805385,
          0.510851145, -0.776545882, -1.05875182, 1.61992049,
          -0.247976229, -0.782306612, -1.67412412, 0.924990475,
          -0.619710982, -0.68199265, 0.451707065, -0.812546909,
          0.775539756, -0.768450081, -1.62671328, 0.809760928,
          -0.959411204, 0.105341189, -0.470325947, 0.724546075,
          -0.00483162235, 1.35915506, 0.798830211, -0.835327327,
          1.08972561, -2.02276516, -0.802969277, 1.75037646,
          -0.0311232246, -0.155137882, -0.139159501, 0.776173949,
          0.720881999, -1.77376366, -1.20902705, 0.888608813,
          -1.03126907, -1.52260399, -1.12288868, 0.698782563,
          -0.603779495, -1.78022289, -0.281770289, 1.61188233,
          -0.0262737349, 0.587241769, 1.81328082, -1.45971918,
          1.08277476, 0.0626540557, 1.68431997, -1.32084394, 1.27444589,
          -1.68252099, -0.221327141, 0.775326312, 0.353391021,
          1.82179558, -1.0298686, -1.03255212, -1.78061903, -1.68633533,
          -0.162492499, 0.957585335, -0.325862914, 1.03714776,
          -1.41211092, -0.984542549, -2.18628955, 0.830820918,
          1.33210266, -1.24268603, 1.22512364, 0.0855078474, 0.767918766,
          0.0990088135, 0.491992831, 0.610594034, 0.273647755,
          -0.0844504386, 0.100665353, 0.0963011906, 1.16492951,
          0.339037031, 0.304926485, 0.566853523, 0.192913905,
          -0.728332996, 0.683535218, 1.02351034, -1.3135035,
          -0.913010001, -2.02194285, -0.116703205, 0.961933434,
          -1.06350434, 1.49496186, 0.135525912, 0.988610089, -1.07921469,
          1.85250556, 0.818446755, 1.024176, -1.15560293, 1.463081,
          -0.976682186, -0.491274655, 0.975919664, -0.316449821,
          0.526429594, -2.55318975, -1.05043089, -2.62211657,
          0.0900183022, 0.163671955, 0.242316991, -0.0680876374,
          -0.482142568, -1.21053529, 0.907378972, -0.254108667,
          -0.364209652, 0.732229412, -0.99027431, 1.39569926,
          -0.474471211, 0.016347073, 1.89027882, 0.0868280455,
          1.30237174, -1.08290279, -1.02787817, -2.29258347, -0.98674047,
          -0.761398196, 1.10679615, -0.152344421, -1.43859446,
          0.136317998, 1.06168854, 0.162390038, -0.464443475,
          -0.280551225, 0.628185272, -0.854661107, -0.125366122,
          0.748047769, -0.979338586, 1.28699839, 0.335536301,
          -0.497269541, 0.479979753, -0.613292634, 0.146190241,
          0.614963055, -0.89125675, 1.19553888, -1.94655287,
          0.0504764132, 1.60233736, 0.999143422, -2.20939302, 1.59269941,
          0.842502475, 1.00120187, 0.0742549896, 0.235195577, 0.87790519,
          0.26496017, 1.03734779, -0.718357027, -0.749981105,
          -1.86446846, 1.0096271, -1.36425614, -0.891815245, -1.9980135,
          0.550027668, 0.54617703, -0.905953109, 0.574534237,
          -0.994134724, -1.14513218, 0.723981023, -0.599051476,
          0.552771032, 0.779195368, -0.918498695, 1.43177915, 1.07720757,
          0.616546869, -0.834569514, 0.564654768, 0.127375171,
          0.380646944, -0.747374773, 0.724055409, 0.560851514,
          0.816860795, -1.03412247, 1.10375595, -0.744533002,
          -0.890106082, 1.18290401, -0.208633527, 0.573901236,
          1.33163536, -1.10322607, 1.2649523, 0.573557734, -0.778447986,
          0.612750769, -0.61627847, 0.585862458, -0.313078374,
          0.635750294, 0.0314109065, 0.137112081, 0.820960462,
          -1.04153204, 1.10517287, -1.6969676, -0.507647574, 0.702926457,
          -0.284281313, 0.853824377, 7.35997892e-05, 0.7160393,
          0.675687373, -0.479619801, -0.894357383, 1.14983177,
          0.0744845346, -0.137262464, 0.90679878, -1.11105394,
          1.26220953, 1.25545573, -1.24276757, -0.656684399, -1.65743589,
          0.0660424307, 0.238182902, 0.451287895, 0.598847806,
          -1.18980181, -0.620581567, 1.09211731, -0.683061719,
          0.640752017, 0.826666296, -0.974951565, 1.18443906,
          0.630590737, 0.804787159, -1.00829983, 1.2028631, 1.7872889,
          -1.18646121, -0.934252918, -1.97621405, 1.27583563, -2.0044806,
          -0.740044117, -2.3490119, -1.70042467, -0.413764983,
          0.751912892, 0.0524795689, -0.495157152, -1.13182199,
          0.835546374, -0.0646068677, -0.731680989, -0.789082229,
          0.696809173, -0.544039965, -1.70715714, -0.595860898,
          1.14254701, -0.620749116, -1.4574424, -0.191731647, 1.10709178,
          -0.0317843556, 0.555989921, -1.01159978, 0.705585361,
          -0.693977535, 0.754553854, -0.801283002, -0.938464701,
          -1.65723574, 0.548944473, 0.746243656, -0.938883066,
          0.803452015, 1.25514889, -0.728599966, -0.958616912,
          -1.49224234, 0.490712345, -1.5906105, -0.791268885,
          -2.06713748, 0.0564978793, -0.467217296, 0.624286652,
          0.122052073, 2.00678754, -0.967498362, -0.792304873,
          -1.58463991, -1.01240408, -1.03778458, 1.06980991,
          0.0271975324, 0.833323896, -0.17486845, 0.682899117,
          0.726691008, 1.74736345, -1.24443316, -0.763970017,
          -1.43490791, -1.02225006, -1.22158837, 0.789275825,
          -0.376916587, 0.0934959874, 0.676043391, -0.888172925,
          0.909722686, -1.20167685, -0.505584419, 0.636810362,
          -0.360867172, 1.8391366, -0.025526084, 0.554791033,
          0.380216897, -0.667099535, 0.120557852, -0.662037253,
          0.468797833, 0.542612731, 0.290257066, -0.7251966, 0.434744179,
          -0.749314427, -0.953250051, 0.767084539, -0.498196751,
          0.529430211, 0.552913785, -0.897170365, 1.28951609,
          -0.758968115, -1.25281239, 0.458953679, -0.527327657,
          2.10378265, -0.265710145, 0.937678456, 0.0178934429,
          -1.97893977, -0.666914463, 0.950743079, -0.651016474,
          -1.21224725, -0.477326542, 1.01963198, -0.331103712,
          -1.97211576, -0.443335563, 0.764519751, -0.0608026795,
          0.536717653, 0.521052063, -0.803291023, 0.877823949,
          -0.759801686, -0.921451211, 0.862965703, -0.124723405,
          0.787996411, 0.0873219594, -0.742133558, 0.349113315,
          0.0992842466, 0.827372015, -0.935676575, 1.1257627,
          0.883541942, 0.706354916, -0.897275507, 0.839955389,
          0.61379844, 0.894592881, -0.927384436, 1.1407721, -0.694307327,
          -0.572208762, 1.10779274, -0.626790464 ]
   responses: !!opencv-matrix
      rows: 480
      cols: 1
      dt: f
      data: [ 0., 3., 0., 1., 3., 3., 1., 0., 3., 3., 1., 2., 1., 4., 5.,
          5., 5., 5., 2., 5., 1., 4., 0., 4., 2., 4., 0., 2., 2., 4., 5.,
          0., 5., 5., 0., 4., 2., 2., 2., 2., 5., 0., 5., 1., 1., 0., 3.,
          4., 0., 2., 4., 3., 3., 1., 3., 1., 1., 4., 4., 3., 0., 0., 2.,
          5., 5., 2., 0., 4., 0., 5., 2., 0., 4., 5., 1., 3., 2., 4., 4.,
          1., 5., 2., 4., 3., 3., 1., 1., 1., 3., 3., 2., 5., 4., 2., 1.,
          2., 4., 3., 5., 0., 2., 5., 4., 1., 2., 1., 0., 0., 4., 0., 1.,
          4., 5., 0., 3., 3., 1., 5., 3., 3., 2., 4., 2., 0., 2., 3., 5.,
          1., 1., 1., 2., 5., 2., 0., 5., 4., 4., 1., 0., 0., 5., 3., 0.,
          4., 5., 1., 4., 3., 3., 3., 2., 2., 4., 2., 0., 2., 4., 0., 5.,
          0., 1., 3., 5., 2., 1., 0., 5., 5., 0., 1., 3., 4., 1., 1., 5.,
          3., 3., 3., 4., 4., 5., 2., 5., 2., 0., 5., 2., 0., 5., 4., 0.,
          2., 1., 4., 0., 4., 1., 0., 4., 4., 1., 5., 1., 3., 3., 2., 3.,
          3., 3., 1., 0., 5., 2., 5., 1., 0., 2., 1., 0., 5., 1., 2., 0.,
          1., 4., 5., 4., 3., 2., 4., 3., 4., 2., 5., 4., 0., 3., 3., 3.,
          1., 0., 1., 2., 0., 5., 5., 1., 1., 5., 0., 4., 1., 4., 5., 2.,
          0., 3., 3., 1., 3., 4., 3., 4., 0., 2., 3., 2., 2., 4., 5., 0.,
          2., 5., 2., 2., 5., 0., 0., 0., 2., 2., 5., 0., 1., 4., 1., 5.,
          3., 5., 1., 4., 4., 4., 1., 3., 3., 4., 3., 1., 3., 2., 1., 2.,
          5., 5., 2., 1., 0., 5., 5., 2., 4., 5., 0., 1., 4., 4., 0., 4.,
          2., 0., 1., 1., 0., 4., 3., 3., 3., 3., 3., 5., 2., 5., 0., 0.,
          4., 2., 4., 2., 1., 5., 0., 0., 0., 2., 2., 5., 5., 1., 1., 1.,
          1., 3., 3., 4., 4., 3., 4., 3., 3., 4., 0., 5., 2., 0., 2., 2.,
          5., 2., 0., 1., 4., 2., 0., 1., 1., 3., 5., 0., 4., 4., 1., 4.,
          5., 1., 3., 5., 3., 3., 3., 0., 0., 3., 2., 3., 2., 0., 5., 5.,
          5., 0., 2., 1., 1., 0., 4., 2., 5., 4., 1., 4., 2., 4., 3., 4.,
          1., 5., 1., 3., 3., 5., 2., 2., 0., 4., 0., 0., 1., 0., 4., 0.,
          5., 5., 1., 3., 5., 4., 1., 2., 5., 3., 1., 1., 2., 2., 3., 4.,
          4., 3., 3., 5., 2., 0., 2., 2., 5., 2., 4., 5., 2., 4., 1., 3.,
          5., 1., 0., 4., 0., 4., 5., 3., 3., 3., 0., 4., 0., 1., 1., 1.,
          3. ]
